digraph Tree {
node [shape=box] ;
0 [label="X[1] <= 2.5\nentropy = 0.931\nsamples = 546\nvalue = [357, 189]"] ;
1 [label="X[5] <= 2.5\nentropy = 0.193\nsamples = 337\nvalue = [327, 10]"] ;
0 -> 1 [labeldistance=2.5, labelangle=45, headlabel="True"] ;
2 [label="entropy = 0.0\nsamples = 311\nvalue = [311, 0]"] ;
1 -> 2 ;
3 [label="X[7] <= 2.0\nentropy = 0.961\nsamples = 26\nvalue = [16, 10]"] ;
1 -> 3 ;
4 [label="X[4] <= 5.0\nentropy = 0.629\nsamples = 19\nvalue = [16, 3]"] ;
3 -> 4 ;
5 [label="X[4] <= 1.5\nentropy = 0.323\nsamples = 17\nvalue = [16, 1]"] ;
4 -> 5 ;
6 [label="X[3] <= 2.5\nentropy = 1.0\nsamples = 2\nvalue = [1, 1]"] ;
5 -> 6 ;
7 [label="entropy = 0.0\nsamples = 1\nvalue = [1, 0]"] ;
6 -> 7 ;
8 [label="entropy = 0.0\nsamples = 1\nvalue = [0, 1]"] ;
6 -> 8 ;
9 [label="entropy = 0.0\nsamples = 15\nvalue = [15, 0]"] ;
5 -> 9 ;
10 [label="entropy = 0.0\nsamples = 2\nvalue = [0, 2]"] ;
4 -> 10 ;
11 [label="entropy = 0.0\nsamples = 7\nvalue = [0, 7]"] ;
3 -> 11 ;
12 [label="X[1] <= 4.5\nentropy = 0.593\nsamples = 209\nvalue = [30, 179]"] ;
0 -> 12 [labeldistance=2.5, labelangle=-45, headlabel="False"] ;
13 [label="X[5] <= 2.5\nentropy = 0.966\nsamples = 69\nvalue = [27, 42]"] ;
12 -> 13 ;
14 [label="X[7] <= 2.5\nentropy = 0.65\nsamples = 24\nvalue = [20, 4]"] ;
13 -> 14 ;
15 [label="entropy = 0.0\nsamples = 15\nvalue = [15, 0]"] ;
14 -> 15 ;
16 [label="X[0] <= 4.5\nentropy = 0.991\nsamples = 9\nvalue = [5, 4]"] ;
14 -> 16 ;
17 [label="entropy = 0.0\nsamples = 3\nvalue = [3, 0]"] ;
16 -> 17 ;
18 [label="X[4] <= 7.0\nentropy = 0.918\nsamples = 6\nvalue = [2, 4]"] ;
16 -> 18 ;
19 [label="X[0] <= 7.5\nentropy = 0.722\nsamples = 5\nvalue = [1, 4]"] ;
18 -> 19 ;
20 [label="entropy = 0.0\nsamples = 3\nvalue = [0, 3]"] ;
19 -> 20 ;
21 [label="X[5] <= 1.5\nentropy = 1.0\nsamples = 2\nvalue = [1, 1]"] ;
19 -> 21 ;
22 [label="entropy = 0.0\nsamples = 1\nvalue = [1, 0]"] ;
21 -> 22 ;
23 [label="entropy = 0.0\nsamples = 1\nvalue = [0, 1]"] ;
21 -> 23 ;
24 [label="entropy = 0.0\nsamples = 1\nvalue = [1, 0]"] ;
18 -> 24 ;
25 [label="X[0] <= 4.5\nentropy = 0.624\nsamples = 45\nvalue = [7, 38]"] ;
13 -> 25 ;
26 [label="X[5] <= 6.5\nentropy = 1.0\nsamples = 10\nvalue = [5, 5]"] ;
25 -> 26 ;
27 [label="X[0] <= 2.5\nentropy = 0.65\nsamples = 6\nvalue = [5, 1]"] ;
26 -> 27 ;
28 [label="entropy = 0.0\nsamples = 1\nvalue = [0, 1]"] ;
27 -> 28 ;
29 [label="entropy = 0.0\nsamples = 5\nvalue = [5, 0]"] ;
27 -> 29 ;
30 [label="entropy = 0.0\nsamples = 4\nvalue = [0, 4]"] ;
26 -> 30 ;
31 [label="X[3] <= 4.5\nentropy = 0.316\nsamples = 35\nvalue = [2, 33]"] ;
25 -> 31 ;
32 [label="entropy = 0.0\nsamples = 19\nvalue = [0, 19]"] ;
31 -> 32 ;
33 [label="X[3] <= 5.5\nentropy = 0.544\nsamples = 16\nvalue = [2, 14]"] ;
31 -> 33 ;
34 [label="X[2] <= 4.5\nentropy = 0.918\nsamples = 6\nvalue = [2, 4]"] ;
33 -> 34 ;
35 [label="X[0] <= 9.0\nentropy = 0.918\nsamples = 3\nvalue = [2, 1]"] ;
34 -> 35 ;
36 [label="entropy = 0.0\nsamples = 2\nvalue = [2, 0]"] ;
35 -> 36 ;
37 [label="entropy = 0.0\nsamples = 1\nvalue = [0, 1]"] ;
35 -> 37 ;
38 [label="entropy = 0.0\nsamples = 3\nvalue = [0, 3]"] ;
34 -> 38 ;
39 [label="entropy = 0.0\nsamples = 10\nvalue = [0, 10]"] ;
33 -> 39 ;
40 [label="X[6] <= 4.5\nentropy = 0.149\nsamples = 140\nvalue = [3, 137]"] ;
12 -> 40 ;
41 [label="X[0] <= 6.5\nentropy = 0.406\nsamples = 37\nvalue = [3, 34]"] ;
40 -> 41 ;
42 [label="X[1] <= 6.5\nentropy = 0.75\nsamples = 14\nvalue = [3, 11]"] ;
41 -> 42 ;
43 [label="entropy = 0.0\nsamples = 7\nvalue = [0, 7]"] ;
42 -> 43 ;
44 [label="X[1] <= 9.5\nentropy = 0.985\nsamples = 7\nvalue = [3, 4]"] ;
42 -> 44 ;
45 [label="X[0] <= 4.0\nentropy = 0.811\nsamples = 4\nvalue = [3, 1]"] ;
44 -> 45 ;
46 [label="entropy = 0.0\nsamples = 1\nvalue = [0, 1]"] ;
45 -> 46 ;
47 [label="entropy = 0.0\nsamples = 3\nvalue = [3, 0]"] ;
45 -> 47 ;
48 [label="entropy = 0.0\nsamples = 3\nvalue = [0, 3]"] ;
44 -> 48 ;
49 [label="entropy = 0.0\nsamples = 23\nvalue = [0, 23]"] ;
41 -> 49 ;
50 [label="entropy = 0.0\nsamples = 103\nvalue = [0, 103]"] ;
40 -> 50 ;
}